digraph Tree {
node [shape=box] ;
0 [label="X[3] <= 0.5\ngini = 0.42\nsamples = 10\nvalue = [3, 7]"] ;
1 [label="gini = 0.0\nsamples = 5\nvalue = [0, 5]"] ;
0 -> 1 [labeldistance=2.5, labelangle=45, headlabel="True"] ;
2 [label="X[1] <= 0.5\ngini = 0.48\nsamples = 5\nvalue = [3, 2]"] ;
0 -> 2 [labeldistance=2.5, labelangle=-45, headlabel="False"] ;
3 [label="gini = 0.0\nsamples = 1\nvalue = [0, 1]"] ;
2 -> 3 ;
4 [label="X[0] <= 6.0\ngini = 0.375\nsamples = 4\nvalue = [3, 1]"] ;
2 -> 4 ;
5 [label="X[1] <= 1.5\ngini = 0.5\nsamples = 2\nvalue = [1, 1]"] ;
4 -> 5 ;
6 [label="gini = 0.0\nsamples = 1\nvalue = [1, 0]"] ;
5 -> 6 ;
7 [label="gini = 0.0\nsamples = 1\nvalue = [0, 1]"] ;
5 -> 7 ;
8 [label="gini = 0.0\nsamples = 2\nvalue = [2, 0]"] ;
4 -> 8 ;
}